/*!
 * The following copyright notice may not be removed under any circumstances.
 * 
 * Copyright:
 * Generated in 2010 by FontLab Studio. Copyright info pending.
 * 
 * Full name:
 * TitilliumText22L XBold
 * 
 * Manufacturer:
 * Campivisivi
 * 
 * Designer:
 * Campivisivi
 * 
 * License information:
 * http://scripts.sil.org/OFL
 */
Cufon.registerFont({"w":530,"face":{"font-family":"TitilliumText22L Xb","font-weight":400,"font-stretch":"normal","units-per-em":"1000","panose-1":"0 0 0 0 0 0 0 0 0 0","ascent":"750","descent":"-250","x-height":"12","bbox":"-34 -800 945 248","underline-thickness":"50","underline-position":"-50","unicode-range":"U+0020-U+007E"},"glyphs":{" ":{"w":235},"C":{"d":"495,-139r3,124v0,0,-119,27,-198,27v-210,0,-260,-117,-260,-357v0,-260,68,-357,260,-357v85,0,199,29,199,29r-4,121v0,0,-121,-14,-175,-14v-105,0,-138,40,-138,221v0,171,24,221,142,221v50,0,171,-15,171,-15","w":534},"c":{"d":"246,-511v58,0,160,21,160,21r-4,115v0,0,-79,-8,-117,-8v-96,0,-114,33,-114,128v0,107,19,139,115,139v38,0,116,-8,116,-8r4,115v0,0,-107,21,-163,21v-149,0,-208,-79,-208,-267v0,-177,62,-256,211,-256","w":436},"d":{"d":"484,-700r0,700r-134,0r0,-20v0,0,-69,31,-120,31v-151,0,-195,-91,-195,-266v0,-181,71,-256,207,-256v37,0,108,13,108,13r0,-202r134,0xm253,-113v39,-1,97,-14,97,-14r0,-254v0,0,-55,-9,-98,-9v-50,0,-81,36,-81,135v0,101,19,140,82,142","w":551},"e":{"d":"271,-111v82,0,185,-9,185,-9r2,104v0,0,-115,28,-208,28v-151,0,-215,-75,-215,-255v0,-178,75,-268,221,-268v147,0,218,74,218,225r-10,94r-294,0v1,57,29,81,101,81xm169,-295r173,0v0,-71,-23,-97,-86,-97v-64,0,-86,31,-87,97","w":507},"f":{"d":"205,-378r0,378r-134,0r0,-378r-54,0r0,-121r54,0r0,-23v0,-144,37,-188,146,-188v33,0,114,13,114,13r-2,109v0,0,-44,-2,-76,-2v-38,0,-48,19,-48,69r0,22r121,0r0,121r-121,0","w":343},"g":{"d":"276,240v-146,0,-241,-27,-241,-149v0,-46,21,-81,71,-120v-22,-15,-36,-44,-36,-75v0,-25,39,-80,39,-80v-35,-25,-68,-62,-68,-149v0,-129,93,-177,210,-177v44,0,101,13,101,13r154,-3r0,107r-63,0v8,14,17,31,17,60v0,140,-74,176,-211,176v-11,0,-32,-2,-41,-4v0,0,-10,26,-10,39v0,26,12,33,97,33v170,0,218,39,218,151v0,128,-108,178,-237,178xm284,27v-28,0,-90,-7,-90,-7v-17,17,-27,32,-27,57v0,29,35,43,110,43v65,0,101,-14,101,-50v0,-38,-20,-42,-94,-43xm249,-269v54,0,79,-16,79,-64v0,-45,-24,-63,-78,-63v-54,0,-75,19,-75,63v0,44,19,64,74,64","w":538},"h":{"d":"201,0r-134,0r0,-700r134,0r0,215v0,0,77,-26,124,-26v140,0,176,88,176,249r0,262r-134,0r0,-262v0,-75,-10,-124,-70,-124v-33,0,-96,12,-96,12r0,374","w":561},"i":{"d":"67,0r0,-499r134,0r0,499r-134,0xm67,-564r0,-137r134,0r0,137r-134,0","w":268},"j":{"d":"70,-6r0,-493r134,0r0,494v0,139,-39,183,-178,253r-60,-111v84,-51,104,-65,104,-143xm70,-573r0,-137r134,0r0,137r-134,0","w":271},"k":{"d":"201,0r-134,0r0,-700r134,0r0,391r51,-10r99,-180r150,0r-129,236r136,263r-151,0r-102,-188r-54,10r0,178","w":518},"l":{"d":"67,0r0,-700r134,0r0,700r-134,0","w":268},"m":{"d":"201,0r-134,0r0,-499r133,0r0,24v0,0,33,-16,68,-27v17,-5,36,-9,50,-9v56,0,95,14,122,41v51,-19,117,-41,171,-41v136,0,176,79,176,250r0,261r-134,0r0,-206v0,-126,2,-180,-70,-180v-40,0,-93,19,-93,19v0,0,4,69,4,108r0,259r-134,0r0,-257v0,-90,-8,-129,-70,-129v-33,0,-89,17,-89,17r0,369","w":847},"A":{"d":"20,0r153,-690r262,0r150,690r-138,0r-31,-116r-232,0r-26,116r-138,0xm280,-563r-67,314r177,0r-65,-314r-45,0","w":605},"p":{"d":"67,210r0,-709r134,0r0,23v0,0,64,-35,113,-35v132,0,197,65,197,257v0,213,-74,266,-227,266v-37,0,-83,-8,-83,-8r0,206r-134,0xm288,-388v-34,0,-87,19,-87,19r0,255v0,0,45,5,73,5v80,0,101,-39,101,-145v0,-101,-34,-134,-87,-134","w":546},"q":{"d":"263,12v-164,0,-228,-97,-228,-256v0,-159,58,-267,228,-267v58,0,206,12,206,12r0,710r-134,0r0,-211v0,0,-26,12,-72,12xm263,-390v-64,0,-94,49,-94,146v0,87,30,135,94,135v33,0,72,-17,72,-17r0,-262v0,0,-47,-2,-72,-2","w":536},"r":{"d":"67,0r0,-499r134,0r0,47v0,0,60,-44,139,-59r0,144v-88,17,-139,43,-139,43r0,324r-134,0","w":360},"s":{"d":"435,-486r-2,112v0,0,-124,-16,-182,-16v-58,0,-70,12,-70,39v0,23,19,29,94,41v133,21,175,59,175,160v0,117,-77,162,-202,162v-74,0,-192,-24,-192,-24r4,-113v0,0,124,16,175,16v64,0,81,-12,81,-38v0,-22,-11,-30,-81,-42v-130,-22,-188,-52,-188,-159v0,-116,89,-163,194,-163v72,0,194,25,194,25","w":497},"u":{"d":"360,-499r134,0r0,499r-134,0r0,-21v0,0,-78,33,-124,33v-146,0,-176,-79,-176,-250r0,-261r134,0r0,261v0,90,3,129,70,129v33,0,96,-17,96,-17r0,-373","w":561},"w":{"d":"12,-499r132,0r61,378r24,0r76,-369r140,0r76,369r24,0r61,-378r132,0r-93,499r-215,0r-56,-306r-57,306r-212,0","w":750},"y":{"d":"8,-499r132,0r91,368r23,0r91,-368r132,0r-175,708r-132,0r51,-209r-90,0","w":485},"z":{"d":"53,-379r0,-121r371,0r0,121r-210,258r210,0r0,121r-371,0r0,-121r210,-258r-210,0","w":477},"Z":{"d":"60,-557r0,-133r450,0r0,133r-273,409r0,15r273,0r0,133r-450,0r0,-133r273,-409r0,-15r-273,0","w":570},"0":{"d":"264,-672v164,0,257,96,257,346v0,250,-93,338,-257,338v-164,0,-257,-88,-257,-338v0,-250,93,-346,257,-346xm265,-540v-80,0,-110,52,-110,214v0,162,30,206,110,206v80,0,108,-44,108,-206v0,-162,-28,-214,-108,-214"},"1":{"d":"28,-516r216,-144r128,0r0,660r-138,0r0,-499r-142,93"},"2":{"d":"479,0r-428,0r0,-126r137,-136v87,-87,138,-137,138,-201v0,-51,-31,-72,-108,-72v-68,0,-155,15,-155,15r-8,-126v0,0,105,-26,198,-26v151,0,215,66,215,189v0,102,-36,158,-139,259r-94,92r244,0r0,132"},"3":{"d":"54,-646v0,0,115,-26,195,-26v174,0,231,59,231,182v0,72,-29,110,-77,142v55,30,89,60,89,149v0,139,-64,211,-225,211v-98,0,-221,-24,-221,-24r13,-124v0,0,112,14,188,14v68,0,103,-23,103,-74v0,-49,-39,-70,-96,-70r-133,0r0,-125r133,0v45,0,84,-44,84,-77v0,-52,-41,-70,-99,-70v-78,0,-173,13,-173,13"},"5":{"d":"72,-661r403,0r0,132r-279,0r-16,126v0,0,64,-18,96,-18v144,0,219,62,219,206v0,144,-82,227,-226,227v-103,0,-234,-33,-234,-33r15,-123v0,0,131,24,214,24v53,0,89,-34,89,-87v0,-57,-35,-85,-92,-85v-60,0,-105,15,-105,15r-106,-23"},"7":{"d":"49,-528r0,-133r422,0r0,157r-238,522r-128,-36r224,-486r0,-24r-280,0"},"8":{"d":"268,-672v142,0,243,65,243,181v0,79,-15,105,-72,151v53,44,82,78,82,161v0,139,-114,191,-253,191v-139,0,-250,-41,-250,-180v0,-91,30,-128,83,-172v-57,-46,-72,-82,-72,-152v0,-114,95,-180,239,-180xm268,-120v68,0,105,-29,105,-80v0,-32,-20,-58,-59,-73r-88,0v-41,16,-60,41,-60,73v0,51,34,80,102,80xm270,-540v-60,0,-93,20,-93,70v0,32,17,54,49,76r88,0v32,-22,49,-44,49,-76v0,-50,-32,-70,-93,-70"},"E":{"d":"70,0r0,-690r438,0r0,132r-302,0r0,154r242,0r0,129r-242,0r0,143r302,0r0,132r-438,0","w":553},"F":{"d":"70,0r0,-690r438,0r0,132r-302,0r0,199r242,0r0,131r-242,0r0,228r-136,0","w":538},"G":{"d":"352,-243r0,-123r198,0r0,355v0,0,-143,23,-232,23v-216,0,-278,-127,-278,-359v0,-248,72,-355,273,-355v105,0,237,29,237,29r-4,119v0,0,-120,-13,-211,-13v-118,0,-153,41,-153,220v0,173,25,225,149,225v41,0,83,-4,83,-4r0,-117r-62,0","w":595},"H":{"d":"461,0r0,-285r-253,0r0,285r-138,0r0,-690r138,0r0,272r253,0r0,-272r138,0r0,690r-138,0","w":669},"K":{"d":"414,0r-114,-271r-92,10r0,261r-138,0r0,-690r138,0r0,296r90,-10r112,-286r159,0r-148,343r152,347r-159,0","w":593},"Q":{"d":"456,156r-90,-146v-14,1,-29,2,-44,2v-214,0,-282,-120,-282,-352v0,-232,68,-362,282,-362v214,0,282,130,282,362v0,148,-28,250,-103,305r81,132xm322,-121v112,0,140,-70,140,-219v0,-149,-28,-229,-140,-229v-112,0,-140,80,-140,229v0,149,28,219,140,219","w":644},"R":{"d":"420,0r-80,-223r-132,0r0,223r-138,0r0,-690r264,0v163,0,240,66,240,229v0,102,-38,158,-100,197r97,264r-151,0xm433,-459v0,-66,-33,-100,-99,-100r-126,0r0,205r128,0v69,0,97,-43,97,-105","w":614},"S":{"d":"486,-675r-11,123v0,0,-141,-16,-199,-16v-74,0,-109,22,-109,67v0,43,27,59,141,95v147,47,192,88,192,208v0,141,-101,210,-242,210v-76,0,-210,-28,-210,-28r14,-123v0,0,124,17,195,17v74,0,106,-20,106,-73v0,-42,-24,-62,-122,-90v-153,-44,-211,-96,-211,-214v0,-132,94,-203,246,-203v77,0,210,27,210,27"},"T":{"d":"-10,-557r0,-133r500,0r0,133r-180,0r0,557r-138,0r0,-557r-182,0","w":480},"V":{"d":"448,-690r145,0r-160,690r-255,0r-158,-690r145,0r118,558r45,0","w":613},"N":{"d":"70,0r0,-690r217,0r191,516r15,0r0,-516r138,0r0,690r-210,0r-198,-516r-15,0r0,516r-138,0","w":701},"$":{"d":"486,-675r-11,123v0,0,-73,-8,-136,-13r-21,163v139,45,182,87,182,204v0,139,-97,207,-234,210r-15,118v0,0,-75,-3,-75,-7r15,-116v-69,-7,-143,-23,-143,-23r14,-123v0,0,78,11,145,16r21,-165v-143,-43,-198,-96,-198,-211v0,-132,94,-203,246,-203r5,0r13,-98r75,0r-13,104v65,8,130,21,130,21xm167,-501v0,34,17,51,79,74r18,-141v-66,3,-97,25,-97,67xm363,-195v0,-31,-14,-50,-62,-70r-18,142v55,-4,80,-25,80,-72"},"!":{"d":"200,0r0,-166r144,0r0,166r-144,0xm203,-260r-5,-440r148,0r-5,440r-138,0"},"a":{"d":"456,-339r0,185v0,37,4,47,32,52r-4,114v-87,0,-110,-13,-142,-34v0,0,-84,34,-153,34v-99,0,-149,-64,-149,-164v0,-113,64,-146,174,-154r108,-7r0,-25v0,-27,-21,-45,-50,-45v-74,0,-194,8,-194,8r-4,-114v0,0,133,-22,206,-22v112,0,176,44,176,172xm322,-211r-91,4v-35,2,-56,15,-56,51v0,35,13,53,41,53v41,0,106,-15,106,-15r0,-93","w":528},"o":{"d":"265,-511v174,0,230,107,230,261v0,154,-56,262,-230,262v-174,0,-230,-108,-230,-262v0,-154,56,-261,230,-261xm265,-109v74,0,94,-49,94,-141v0,-92,-20,-140,-94,-140v-74,0,-94,48,-94,140v0,92,20,141,94,141"},"J":{"d":"243,-690v0,212,1,361,1,575v0,147,-64,185,-214,185r0,-128v47,0,76,-17,76,-64r0,-568r137,0","w":314},"t":{"d":"331,-378r-123,0r0,189v0,50,0,73,42,73v28,0,76,-2,76,-2r6,115v0,0,-67,15,-102,15v-121,0,-156,-46,-156,-190r0,-200r-59,0r0,-121r59,0r0,-140r134,0r0,140r123,0r0,121","w":350},"n":{"d":"201,0r-134,0r0,-499r134,0r0,22v0,0,77,-34,124,-34v140,0,176,88,176,250r0,261r-134,0r0,-261v0,-76,-10,-125,-70,-125v-33,0,-96,17,-96,17r0,369","w":561},"#":{"d":"529,-165r-96,0r0,165r-116,0r0,-165r-104,0r0,165r-116,0r0,-165r-96,0r0,-112r96,0r0,-106r-96,0r0,-112r96,0r0,-165r116,0r0,165r104,0r0,-165r116,0r0,165r96,0r0,112r-96,0r0,106r96,0r0,112xm317,-277r0,-106r-104,0r0,106r104,0"},"W":{"d":"24,-690r145,0r104,548r15,0r104,-548r157,0r104,548r15,0r104,-548r145,0r-154,690r-205,0r-88,-487r-87,487r-205,0","w":941},"@":{"d":"945,-305r0,17v0,219,-68,298,-193,298v-60,0,-101,-14,-130,-43v-39,19,-100,42,-151,42v-122,0,-187,-68,-187,-251v0,-162,37,-267,191,-267v28,0,93,22,93,22r0,-13r134,0r0,200v0,162,13,180,50,180v40,0,58,-29,58,-168r0,-18v0,-214,-94,-292,-306,-292v-217,0,-329,118,-329,337v0,242,87,339,329,339v40,0,143,-9,143,-9r5,130v0,0,-100,10,-148,10v-296,0,-464,-109,-464,-470v0,-318,188,-468,464,-468v295,0,441,150,441,424xm482,-123v30,0,65,-7,93,-15v-5,-30,-7,-64,-7,-102r0,-132v0,0,-44,-10,-63,-10v-72,0,-85,28,-85,140v0,89,19,119,62,119","w":985},"`":{"d":"23,-775r257,92r-37,105r-261,-78","w":268},"M":{"d":"70,0r0,-690r220,0r135,496r135,-496r218,0r0,690r-138,0r0,-516r-15,0r-131,486r-138,0r-133,-486r-15,0r0,516r-138,0","w":848},"U":{"d":"198,-230v0,81,50,104,121,104v71,0,121,-24,121,-104r0,-460r138,0r0,460v0,170,-89,239,-259,239v-170,0,-259,-69,-259,-239r0,-460r138,0r0,460","w":638},"X":{"d":"168,-690r123,241r122,-241r153,0r-183,348r183,342r-153,0r-122,-237r-123,237r-153,0r186,-342r-186,-348r153,0","w":581},"Y":{"d":"356,-294r0,294r-138,0r0,-295r-208,-395r153,0r123,241r122,-241r153,0","w":571},"I":{"d":"70,0r0,-690r138,0r0,690r-138,0","w":278},"O":{"d":"322,-121v112,0,140,-70,140,-219v0,-149,-28,-229,-140,-229v-112,0,-140,80,-140,229v0,149,28,219,140,219xm322,12v-214,0,-282,-120,-282,-352v0,-232,68,-362,282,-362v214,0,282,130,282,362v0,232,-68,352,-282,352","w":644},"~":{"d":"464,-388r8,125v0,0,-48,53,-116,53v-52,0,-141,-44,-179,-44v-48,0,-109,40,-109,40r-10,-126v0,0,54,-53,127,-53v51,0,129,44,177,44v39,0,102,-39,102,-39"},"L":{"d":"457,0r-387,0r0,-690r138,0r0,557r249,0r0,133","w":487},"B":{"d":"70,-690r265,0v125,0,212,50,212,175v0,90,-21,128,-75,162v62,27,88,68,88,158v0,136,-85,195,-221,195r-269,0r0,-690xm332,-283r-126,0r0,156r126,0v57,0,86,-22,86,-79v0,-55,-31,-77,-86,-77xm328,-563r-122,0r0,155r123,0v54,0,77,-28,77,-82v0,-52,-26,-73,-78,-73","w":605},"D":{"d":"297,0r-227,0r0,-690r227,0v237,0,289,104,289,332v0,234,-45,358,-289,358xm444,-358v0,-140,-13,-201,-147,-201r-91,0r0,428r91,0v134,0,147,-85,147,-227","w":626},"P":{"d":"320,-197r-112,0r0,197r-138,0r0,-690r250,0v160,0,242,81,242,241v0,160,-82,252,-242,252xm208,-330r111,0v69,0,103,-44,103,-119v0,-74,-34,-108,-103,-108r-111,0r0,227","w":592},"b":{"d":"309,-511v136,0,202,65,202,256v0,214,-73,267,-249,267v-48,0,-195,-14,-195,-14r0,-698r134,0r0,212v0,0,64,-23,108,-23xm262,-109v92,0,113,-39,113,-146v0,-100,-32,-132,-84,-132v-33,0,-90,8,-90,8r0,265v0,0,46,5,61,5","w":546},"v":{"d":"8,-499r139,0r82,388r27,0r84,-388r136,0r-120,499r-228,0","w":484},"x":{"d":"10,-499r143,0r80,154r81,-154r143,0r-137,250r137,249r-143,0r-81,-153r-80,153r-143,0r136,-249","w":467},"6":{"d":"495,-650r-12,126v0,0,-102,-15,-186,-15v-91,0,-133,50,-133,141v0,1,78,-25,126,-25v149,0,227,65,227,214v0,149,-93,221,-242,221v-176,0,-253,-120,-253,-339v0,-262,106,-345,275,-345v84,0,198,22,198,22xm278,-297v-54,3,-115,18,-115,18v0,87,28,161,112,161v64,0,100,-27,100,-91v0,-62,-35,-88,-97,-88"},"9":{"d":"37,-10r12,-124v0,0,102,15,186,15v91,0,133,-59,133,-141v0,-1,-78,23,-126,23v-143,0,-227,-71,-227,-214v0,-145,97,-221,242,-221v174,0,253,112,253,338v0,262,-106,346,-275,346v-84,0,-198,-22,-198,-22xm254,-363v54,0,115,-20,115,-20v0,-89,-35,-159,-112,-159v-61,0,-100,30,-100,91v0,61,36,88,97,88"},"<":{"d":"410,-419r-215,110r215,113r0,140r-347,-181r0,-140r347,-182r0,140"},">":{"d":"278,-309r-215,-110r0,-140r347,182r0,140r-347,181r0,-140"},"[":{"d":"281,-749r0,132r-115,0r0,608r115,0r0,132r-252,0r-1,-872r253,0","w":300},"\\":{"d":"501,-27r-149,63r-318,-700r150,-67","w":548},"]":{"d":"28,-617r0,-132r253,0r-1,872r-252,0r0,-132r115,0r0,-608r-115,0","w":300},"|":{"d":"191,230r0,-980r138,0r0,980r-138,0"},"4":{"d":"305,10r0,-106r-283,0r0,-112r164,-452r152,0r-160,432r127,0r0,-199r138,0r0,199r61,0r0,132r-61,0r0,106r-138,0"},"\"":{"d":"325,-440r-122,0r-2,-250r129,0xm157,-440r-122,0r-2,-250r129,0","w":355},"'":{"d":"-18,-440r-2,-250r129,0r-5,250r-122,0","w":100},"(":{"d":"102,-750r146,0v0,0,-95,260,-95,449v0,186,95,426,95,426r-146,0v0,0,-97,-226,-97,-426v0,-200,97,-449,97,-449","w":260},")":{"d":"5,-750r146,0v0,0,97,239,97,439v0,200,-97,436,-97,436r-146,0v0,0,95,-250,95,-436v0,-189,-95,-439,-95,-439","w":260},",":{"d":"-6,123r52,-260r144,0r-61,260r-135,0","w":170},"-":{"d":"70,-215r0,-132r300,0r0,132r-300,0","w":440},".":{"d":"45,0r0,-166r144,0r0,166r-144,0","w":248},":":{"d":"35,-289r0,-166r144,0r0,166r-144,0xm35,0r0,-166r144,0r0,166r-144,0","w":230},";":{"d":"4,113r62,-270r144,0r-81,270r-125,0xm56,-289r0,-166r144,0r0,166r-144,0","w":241},"=":{"d":"21,-333r0,-122r475,0r0,122r-475,0xm21,-116r0,-122r475,0r0,122r-475,0"},"?":{"d":"401,-516v0,182,-177,198,-177,268r0,38r-144,0r0,-41v0,-137,173,-137,173,-247v0,-49,-6,-74,-83,-74v-51,0,-149,18,-149,18r-16,-132v0,0,117,-28,171,-28v157,0,225,51,225,198xm80,0r0,-166r144,0r0,166r-144,0","w":386},"_":{"d":"27,-15r428,0r0,122r-428,0r0,-122","w":520},"{":{"d":"263,-172v0,29,-7,84,-7,117v0,40,10,52,71,57r0,132v-148,-5,-216,-53,-216,-172v0,-39,7,-96,7,-121v0,-45,-18,-77,-94,-98r0,-112v77,-19,94,-45,94,-90v0,-28,-7,-90,-7,-127v0,-129,68,-170,216,-175r0,132v-61,5,-71,13,-71,53v0,33,7,99,7,128v0,80,-27,110,-100,134v73,24,100,62,100,142","w":339},"}":{"d":"88,-172v0,-80,27,-118,100,-142v-73,-24,-100,-54,-100,-134v0,-29,7,-95,7,-128v0,-40,-10,-48,-71,-53r0,-132v148,5,216,46,216,175v0,37,-7,99,-7,127v0,45,17,71,94,90r0,112v-76,21,-94,53,-94,98v0,25,7,82,7,121v0,119,-68,167,-216,172r0,-132v61,-5,71,-17,71,-57v0,-33,-7,-88,-7,-117","w":339},"&":{"d":"323,-714v132,0,204,60,204,175v0,90,-38,138,-132,207r78,80v5,-21,21,-91,24,-116r130,3v-9,61,-33,151,-50,196r112,104r-80,90r-103,-89v-74,57,-129,87,-235,87v-143,0,-239,-78,-239,-221v0,-98,62,-161,139,-205v-39,-53,-51,-80,-51,-147v0,-104,80,-164,203,-164xm275,-103v52,0,83,-10,130,-44r-153,-163v-44,26,-82,69,-82,111v0,59,46,96,105,96xm255,-530v0,42,14,67,44,99r14,15v52,-38,78,-62,78,-108v0,-47,-24,-64,-68,-64v-42,0,-68,16,-68,58","w":700},"*":{"d":"454,-499r-123,0r38,120r-73,22r-41,-121r-103,79r-47,-59r105,-78r-102,-73r46,-63r99,69r41,-117r75,25r-38,122r123,0r0,74"},"%":{"d":"404,-293v87,0,125,58,125,145v0,87,-38,146,-125,146v-87,0,-125,-59,-125,-146v0,-87,38,-145,125,-145xm24,-59r423,-636r65,47r-423,636xm377,-148v0,46,4,66,27,66v23,0,27,-20,27,-66v0,-46,-4,-65,-27,-65v-23,0,-27,19,-27,65xm126,-701v87,0,125,58,125,145v0,87,-38,146,-125,146v-87,0,-125,-59,-125,-146v0,-87,38,-145,125,-145xm99,-556v0,46,4,66,27,66v23,0,27,-20,27,-66v0,-46,-4,-65,-27,-65v-23,0,-27,19,-27,65"},"+":{"d":"16,-230r0,-122r189,0r0,-188r122,0r0,188r191,0r0,122r-191,0r0,190r-122,0r0,-190r-189,0"},"^":{"d":"376,-313r-109,-215r-113,215r-140,0r181,-347r140,0r181,347r-140,0"},"\/":{"d":"56,-20r283,-700r128,44r-283,700"},"\u00a0":{"w":235}}});
